<?xml version="1.0"?>
<MethodSetup Method="TMlpANN::TMlpANN">
  <GeneralInfo>
    <Info name="TMVA Release" value="4.1.2 [262402]"/>
    <Info name="ROOT Release" value="5.32/00 [335872]"/>
    <Info name="Creator" value="dmorse"/>
    <Info name="Date" value="Wed Dec 12 15:11:20 2012"/>
    <Info name="Host" value="Linux lxbuild170.cern.ch 2.6.18-308.1.1.el5 #1 SMP Wed Mar 7 19:25:07 CET 2012 x86_64 x86_64 x86_64 GNU/Linux"/>
    <Info name="Dir" value="/afs/cern.ch/user/d/dmorse/scratch0/RA3/2012/cms533v1/CMSSW_5_3_3/src/TMVA-v4.1.2/test"/>
    <Info name="Training events" value="105866"/>
    <Info name="TrainingTime" value="4.39231378e+02"/>
    <Info name="AnalysisType" value="Classification"/>
  </GeneralInfo>
  <Options>
    <Option name="V" modified="Yes">False</Option>
    <Option name="VerbosityLevel" modified="No">Default</Option>
    <Option name="VarTransform" modified="No">None</Option>
    <Option name="H" modified="Yes">False</Option>
    <Option name="CreateMVAPdfs" modified="No">False</Option>
    <Option name="IgnoreNegWeightsInTraining" modified="No">False</Option>
    <Option name="NCycles" modified="Yes">200</Option>
    <Option name="HiddenLayers" modified="Yes">N+1,N</Option>
    <Option name="ValidationFraction" modified="Yes">3.000000e-01</Option>
    <Option name="LearningMethod" modified="Yes">bfgs</Option>
  </Options>
  <Variables NVar="7">
    <Variable VarIndex="0" Expression="TotEt" Label="TotEt" Title="TotEt" Unit="" Internal="TotEt" Type="F" Min="1.42770004e+02" Max="5.51750000e+03"/>
    <Variable VarIndex="1" Expression="dPhi" Label="dPhi" Title="dPhi" Unit="" Internal="dPhi" Type="F" Min="5.04544005e-02" Max="3.14159012e+00"/>
    <Variable VarIndex="2" Expression="PhotonLessHt" Label="PhotonLessHt" Title="PhotonLessHt" Unit="" Internal="PhotonLessHt" Type="F" Min="5.66633987e+01" Max="4.45733008e+03"/>
    <Variable VarIndex="3" Expression="DiEMPt" Label="DiEMPt" Title="DiEMPt" Unit="" Internal="DiEMPt" Type="F" Min="6.73222989e-02" Max="1.84301001e+03"/>
    <Variable VarIndex="4" Expression="InvarMass" Label="InvarMass" Title="InvarMass" Unit="" Internal="InvarMass" Type="F" Min="2.02073994e+01" Max="3.07200000e+03"/>
    <Variable VarIndex="5" Expression="Met" Label="Met" Title="Met" Unit="" Internal="Met" Type="F" Min="8.71639997e-02" Max="1.95314001e+03"/>
    <Variable VarIndex="6" Expression="SystemMETdPhi" Label="SystemMETdPhi" Title="SystemMETdPhi" Unit="" Internal="SystemMETdPhi" Type="F" Min="1.26998002e-05" Max="3.14152002e+00"/>
  </Variables>
  <Spectators NSpec="0"/>
  <Classes NClass="2">
    <Class Name="Signal" Index="0"/>
    <Class Name="Background" Index="1"/>
  </Classes>
  <Transformations NTransformations="0"/>
  <MVAPdfs/>
  <Weights>
    <Architecture BuildOptions="@TotEt,@dPhi,@PhotonLessHt,@DiEMPt,@InvarMass,@Met,@SystemMETdPhi:8:7:type"/>
    <input>
      1007.06 1407.68 0.790649 2.44929 727.381 1121.9 246.38 151.844 291.02 229.95 231.155 137.17 0.903669 1.62389 
    </input>
    <output>
      1 0 
    </output>
    <neurons>
      -0.39836 0.386016 -0.418645 0.270145 -0.369283 0.412512 -0.157646 -1.63683 -0.474003 -0.143153 0.392927 0.491573 -0.556933 -0.152448 0.359657 0.878107 0.150619 0.140675 -0.193147 0.456901 -0.169695 0.667952 -0.720768 
    </neurons>
    <synapses>
      -2.55601 0.610492 -0.455809 -2.02909 -4.43217 -7.95347 0.707843 -1.14371 0.697362 -0.834067 -0.394779 -0.298035 -0.397864 0.101202 -1.54184 0.0624082 -0.952498 -1.83782 -1.73769 -2.303 0.644465 1.08712 -0.491231 0.814014 0.992675 1.89906 4.27591 -0.719364 -1.93102 0.419557 -0.670559 -3.91936 -4.35569 -2.77456 0.178017 -0.210747 0.193125 -0.0164421 0.0247438 -0.0307957 -0.237853 0.0188079 1.75685 -0.626355 0.998752 1.38129 1.68387 3.8312 -0.126857 1.07321 -0.491291 0.703034 0.949614 0.629716 0.695954 -0.282973 -3.96987 0.973076 -0.268369 1.2005 0.492503 -0.0345909 1.62609 0.0599063 2.37025 -0.654912 -0.0881197 -0.463606 0.271721 0.460572 -1.35977 -0.890593 0.0890914 0.200418 0.133547 1.30143 0.208168 -0.227532 0.859731 -0.186912 0.569682 -0.018496 -0.264944 -1.24909 0.025606 0.19797 -0.894666 0.0943309 -1.87089 0.606258 0.255376 1.57966 -1.45712 -0.431939 1.61563 1.29454 -0.486779 0.331817 0.252336 -0.23545 -0.199996 -0.173979 0.189051 -0.0946229 -2.20847 -0.0460611 0.747686 1.07148 1.57593 -0.301566 1.32014 0.366703 2.12067 -0.657988 -0.892081 1.09359 -1.42128 -0.190068 1.93696 
    </synapses>
  </Weights>
</MethodSetup>
